<?xml version="1.0"?>
<opencv_storage>
<stage16>
  <maxWeakCount>17</maxWeakCount>
  <stageThreshold>-1.1894402503967285e+00</stageThreshold>
  <weakClassifiers>
    <_>
      <internalNodes>
        0 -1 153501 4.8601478338241577e-02</internalNodes>
      <leafValues>
        -5.4991537332534790e-01 5.6179776787757874e-02</leafValues></_>
    <_>
      <internalNodes>
        0 -1 90456 6.1228893697261810e-02</internalNodes>
      <leafValues>
        -1.6176791489124298e-01 5.8691966533660889e-01</leafValues></_>
    <_>
      <internalNodes>
        0 -1 161404 4.5993766980245709e-04</internalNodes>
      <leafValues>
        1.5386092662811279e-01 -4.2642396688461304e-01</leafValues></_>
    <_>
      <internalNodes>
        0 -1 154467 2.4279220961034298e-03</internalNodes>
      <leafValues>
        5.1781963557004929e-02 -1.</leafValues></_>
    <_>
      <internalNodes>
        0 -1 13006 -2.8000336606055498e-03</internalNodes>
      <leafValues>
        -6.4482891559600830e-01 8.3793170750141144e-02</leafValues></_>
    <_>
      <internalNodes>
        0 -1 105047 -1.2114869803190231e-01</internalNodes>
      <leafValues>
        3.4245640039443970e-01 -1.5541690587997437e-01</leafValues></_>
    <_>
      <internalNodes>
        0 -1 24972 5.9011392295360565e-03</internalNodes>
      <leafValues>
        -1.5011143684387207e-01 4.3992841243743896e-01</leafValues></_>
    <_>
      <internalNodes>
        0 -1 80841 2.4483777815476060e-04</internalNodes>
      <leafValues>
        1.3271489739418030e-01 -4.1236653923988342e-01</leafValues></_>
    <_>
      <internalNodes>
        0 -1 68933 3.0286875553429127e-03</internalNodes>
      <leafValues>
        -1.3090938329696655e-01 4.2602583765983582e-01</leafValues></_>
    <_>
      <internalNodes>
        0 -1 161322 -2.0122656598687172e-02</internalNodes>
      <leafValues>
        -5.9143161773681641e-01 9.4733215868473053e-02</leafValues></_>
    <_>
      <internalNodes>
        0 -1 107338 -1.0313610732555389e-01</internalNodes>
      <leafValues>
        5.2633005380630493e-01 -1.1590516567230225e-01</leafValues></_>
    <_>
      <internalNodes>
        0 -1 118252 5.1352794980630279e-04</internalNodes>
      <leafValues>
        1.0473681241273880e-01 -6.9842201471328735e-01</leafValues></_>
    <_>
      <internalNodes>
        0 -1 159190 -3.2453101128339767e-02</internalNodes>
      <leafValues>
        -7.5622445344924927e-01 5.1735378801822662e-02</leafValues></_>
    <_>
      <internalNodes>
        0 -1 137059 -6.5238207578659058e-02</internalNodes>
      <leafValues>
        2.0189785957336426e-01 -2.7739754319190979e-01</leafValues></_>
    <_>
      <internalNodes>
        0 -1 160223 5.4821902886033058e-03</internalNodes>
      <leafValues>
        -1.1323177069425583e-01 5.8159238100051880e-01</leafValues></_>
    <_>
      <internalNodes>
        0 -1 161754 -5.9194322675466537e-03</internalNodes>
      <leafValues>
        8.6807799339294434e-01 -6.1881210654973984e-02</leafValues></_>
    <_>
      <internalNodes>
        0 -1 15130 2.0594574511051178e-01</internalNodes>
      <leafValues>
        9.9963642656803131e-02 -6.6544204950332642e-01</leafValues></_></weakClassifiers></stage16>
</opencv_storage>
