<?xml version="1.0"?>
<opencv_storage>
<stage13>
  <maxWeakCount>13</maxWeakCount>
  <stageThreshold>-1.3640676736831665e+00</stageThreshold>
  <weakClassifiers>
    <_>
      <internalNodes>
        0 -1 93063 -8.1539347767829895e-02</internalNodes>
      <leafValues>
        -3.8910505827516317e-03 -7.5413709878921509e-01</leafValues></_>
    <_>
      <internalNodes>
        0 -1 60663 -2.0451636612415314e-01</internalNodes>
      <leafValues>
        3.5274419933557510e-02 -6.0619717836380005e-01</leafValues></_>
    <_>
      <internalNodes>
        0 -1 5445 -3.6774717271327972e-02</internalNodes>
      <leafValues>
        -1.3342516124248505e-01 7.6684945821762085e-01</leafValues></_>
    <_>
      <internalNodes>
        0 -1 9126 -1.2054669857025146e-01</internalNodes>
      <leafValues>
        5.4474639892578125e-01 -1.4675626158714294e-01</leafValues></_>
    <_>
      <internalNodes>
        0 -1 1745 2.2325631976127625e-01</internalNodes>
      <leafValues>
        -1.0915292799472809e-01 5.4991120100021362e-01</leafValues></_>
    <_>
      <internalNodes>
        0 -1 60489 -2.8025396168231964e-02</internalNodes>
      <leafValues>
        4.8472213745117188e-01 -1.6452071070671082e-01</leafValues></_>
    <_>
      <internalNodes>
        0 -1 17742 1.4627753756940365e-02</internalNodes>
      <leafValues>
        -1.4571645855903625e-01 4.0862408280372620e-01</leafValues></_>
    <_>
      <internalNodes>
        0 -1 40621 -6.5962642431259155e-02</internalNodes>
      <leafValues>
        6.2575197219848633e-01 -1.3695384562015533e-01</leafValues></_>
    <_>
      <internalNodes>
        0 -1 145777 2.1585226058959961e-02</internalNodes>
      <leafValues>
        -1.6471256315708160e-01 3.7383183836936951e-01</leafValues></_>
    <_>
      <internalNodes>
        0 -1 29726 -1.6733031719923019e-02</internalNodes>
      <leafValues>
        6.6659206151962280e-01 -1.0916581749916077e-01</leafValues></_>
    <_>
      <internalNodes>
        0 -1 122412 -3.2378768082708120e-04</internalNodes>
      <leafValues>
        -6.0382717847824097e-01 1.1327359825372696e-01</leafValues></_>
    <_>
      <internalNodes>
        0 -1 76434 -3.2287649810314178e-02</internalNodes>
      <leafValues>
        4.6352750062942505e-01 -1.6945764422416687e-01</leafValues></_>
    <_>
      <internalNodes>
        0 -1 114617 5.6329376995563507e-02</internalNodes>
      <leafValues>
        -8.2988768815994263e-02 7.2703880071640015e-01</leafValues></_></weakClassifiers></stage13>
</opencv_storage>
