<?xml version="1.0"?>
<opencv_storage>
<stage9>
  <maxWeakCount>10</maxWeakCount>
  <stageThreshold>-1.5244758129119873e+00</stageThreshold>
  <weakClassifiers>
    <_>
      <internalNodes>
        0 -1 90398 8.4300473332405090e-02</internalNodes>
      <leafValues>
        -5.6089740991592407e-01 5.3571426868438721e-01</leafValues></_>
    <_>
      <internalNodes>
        0 -1 137362 2.1572188416030258e-04</internalNodes>
      <leafValues>
        1.1469066143035889e-01 -6.3248360157012939e-01</leafValues></_>
    <_>
      <internalNodes>
        0 -1 111533 -4.8868935555219650e-03</internalNodes>
      <leafValues>
        -7.6609122753143311e-01 1.1023388057947159e-01</leafValues></_>
    <_>
      <internalNodes>
        0 -1 6660 -3.8860095082782209e-04</internalNodes>
      <leafValues>
        -6.4158207178115845e-01 1.3524155318737030e-01</leafValues></_>
    <_>
      <internalNodes>
        0 -1 155233 2.9078801162540913e-04</internalNodes>
      <leafValues>
        1.7700470983982086e-01 -5.9591180086135864e-01</leafValues></_>
    <_>
      <internalNodes>
        0 -1 152045 -4.8347670235671103e-04</internalNodes>
      <leafValues>
        -4.6472948789596558e-01 2.3613359034061432e-01</leafValues></_>
    <_>
      <internalNodes>
        0 -1 161185 1.7674999253358692e-04</internalNodes>
      <leafValues>
        1.7712771892547607e-01 -5.3343069553375244e-01</leafValues></_>
    <_>
      <internalNodes>
        0 -1 159832 -4.3155075400136411e-04</internalNodes>
      <leafValues>
        -4.1146734356880188e-01 2.5601476430892944e-01</leafValues></_>
    <_>
      <internalNodes>
        0 -1 61435 8.7878317572176456e-04</internalNodes>
      <leafValues>
        1.2621903419494629e-01 -6.4135766029357910e-01</leafValues></_>
    <_>
      <internalNodes>
        0 -1 12573 -1.0350547730922699e-02</internalNodes>
      <leafValues>
        5.5954295396804810e-01 -1.8072482943534851e-01</leafValues></_></weakClassifiers></stage9>
</opencv_storage>
