<?xml version="1.0"?>
<opencv_storage>
<stage15>
  <maxWeakCount>10</maxWeakCount>
  <stageThreshold>-1.1800203323364258e+00</stageThreshold>
  <weakClassifiers>
    <_>
      <internalNodes>
        0 -1 1083 -3.5584259033203125e-01</internalNodes>
      <leafValues>
        -6.3636362552642822e-02 -6.6521739959716797e-01</leafValues></_>
    <_>
      <internalNodes>
        0 -1 123721 -7.0616982877254486e-02</internalNodes>
      <leafValues>
        3.5322076082229614e-01 -2.8197094798088074e-01</leafValues></_>
    <_>
      <internalNodes>
        0 -1 60504 -1.7497202381491661e-02</internalNodes>
      <leafValues>
        -1. 7.9730875790119171e-02</leafValues></_>
    <_>
      <internalNodes>
        0 -1 151960 -1.8673455342650414e-02</internalNodes>
      <leafValues>
        -8.0329763889312744e-01 9.5052078366279602e-02</leafValues></_>
    <_>
      <internalNodes>
        0 -1 119158 -5.3422609344124794e-03</internalNodes>
      <leafValues>
        -8.6721408367156982e-01 8.5904002189636230e-02</leafValues></_>
    <_>
      <internalNodes>
        0 -1 139314 -1.8431473523378372e-02</internalNodes>
      <leafValues>
        -1. 5.1221866160631180e-02</leafValues></_>
    <_>
      <internalNodes>
        0 -1 162100 2.4762205430306494e-04</internalNodes>
      <leafValues>
        1.0144284367561340e-01 -5.2945822477340698e-01</leafValues></_>
    <_>
      <internalNodes>
        0 -1 145521 -3.6283032968640327e-03</internalNodes>
      <leafValues>
        3.6588159203529358e-01 -2.1835683286190033e-01</leafValues></_>
    <_>
      <internalNodes>
        0 -1 131519 -2.3720649187453091e-04</internalNodes>
      <leafValues>
        -5.5864411592483521e-01 1.3735687732696533e-01</leafValues></_>
    <_>
      <internalNodes>
        0 -1 134219 -8.0459879245609045e-04</internalNodes>
      <leafValues>
        3.2225510478019714e-01 -2.1364659070968628e-01</leafValues></_></weakClassifiers></stage15>
</opencv_storage>
