<?xml version="1.0"?>
<opencv_storage>
<stage0>
  <maxWeakCount>10</maxWeakCount>
  <stageThreshold>-1.1565377712249756e+00</stageThreshold>
  <weakClassifiers>
    <_>
      <internalNodes>
        0 -1 75695 -7.6342187821865082e-02</internalNodes>
      <leafValues>
        -9.8360655829310417e-03 -8.4533333778381348e-01</leafValues></_>
    <_>
      <internalNodes>
        0 -1 28045 1.5053927898406982e-02</internalNodes>
      <leafValues>
        -3.6810857057571411e-01 7.4513536691665649e-01</leafValues></_>
    <_>
      <internalNodes>
        0 -1 69880 -3.8622545544058084e-03</internalNodes>
      <leafValues>
        8.1113958358764648e-01 -2.1780912578105927e-01</leafValues></_>
    <_>
      <internalNodes>
        0 -1 162108 2.0948476158082485e-03</internalNodes>
      <leafValues>
        3.4590399265289307e-01 -5.9240931272506714e-01</leafValues></_>
    <_>
      <internalNodes>
        0 -1 150216 1.1134422384202480e-02</internalNodes>
      <leafValues>
        -2.5552552938461304e-01 6.5993785858154297e-01</leafValues></_>
    <_>
      <internalNodes>
        0 -1 156901 1.8785471096634865e-02</internalNodes>
      <leafValues>
        2.7287864685058594e-01 -7.5579053163528442e-01</leafValues></_>
    <_>
      <internalNodes>
        0 -1 157352 2.5769434869289398e-03</internalNodes>
      <leafValues>
        -2.6322585344314575e-01 8.7329494953155518e-01</leafValues></_>
    <_>
      <internalNodes>
        0 -1 11958 -2.9764841310679913e-03</internalNodes>
      <leafValues>
        5.8705788850784302e-01 -3.0139786005020142e-01</leafValues></_>
    <_>
      <internalNodes>
        0 -1 127003 6.9654416292905807e-03</internalNodes>
      <leafValues>
        -2.4184256792068481e-01 6.5221017599105835e-01</leafValues></_>
    <_>
      <internalNodes>
        0 -1 87153 -3.0534743564203382e-04</internalNodes>
      <leafValues>
        8.6831641197204590e-01 -1.7053341865539551e-01</leafValues></_></weakClassifiers></stage0>
</opencv_storage>
