<?xml version="1.0"?>
<opencv_storage>
<stage17>
  <maxWeakCount>25</maxWeakCount>
  <stageThreshold>-1.5136107206344604e+00</stageThreshold>
  <weakClassifiers>
    <_>
      <internalNodes>
        0 -1 106976 3.1108874827623367e-02</internalNodes>
      <leafValues>
        -5.5336618423461914e-01 2.3943662643432617e-01</leafValues></_>
    <_>
      <internalNodes>
        0 -1 98608 6.2491075368598104e-05</internalNodes>
      <leafValues>
        -3.0632305145263672e-01 1.6118744015693665e-01</leafValues></_>
    <_>
      <internalNodes>
        0 -1 101148 -2.4971386417746544e-02</internalNodes>
      <leafValues>
        -3.8400059938430786e-01 1.3381020724773407e-01</leafValues></_>
    <_>
      <internalNodes>
        0 -1 159574 -5.1647103391587734e-03</internalNodes>
      <leafValues>
        5.5538874864578247e-01 -1.0598850995302200e-01</leafValues></_>
    <_>
      <internalNodes>
        0 -1 279 -5.2814871072769165e-02</internalNodes>
      <leafValues>
        5.3710967302322388e-01 -5.5544473230838776e-02</leafValues></_>
    <_>
      <internalNodes>
        0 -1 151768 3.6474992521107197e-04</internalNodes>
      <leafValues>
        -1.9670319557189941e-01 2.7956917881965637e-01</leafValues></_>
    <_>
      <internalNodes>
        0 -1 161402 5.6820642203092575e-04</internalNodes>
      <leafValues>
        7.8245960175991058e-02 -8.0407488346099854e-01</leafValues></_>
    <_>
      <internalNodes>
        0 -1 886 4.5358324423432350e-03</internalNodes>
      <leafValues>
        -1.6511498391628265e-01 3.3569720387458801e-01</leafValues></_>
    <_>
      <internalNodes>
        0 -1 145533 -3.1682648696005344e-03</internalNodes>
      <leafValues>
        2.8423824906349182e-01 -2.1310657262802124e-01</leafValues></_>
    <_>
      <internalNodes>
        0 -1 144252 3.5870980937033892e-03</internalNodes>
      <leafValues>
        9.9934145808219910e-02 -5.5742055177688599e-01</leafValues></_>
    <_>
      <internalNodes>
        0 -1 126354 -1.9665332511067390e-03</internalNodes>
      <leafValues>
        -4.2757543921470642e-01 1.2952034175395966e-01</leafValues></_>
    <_>
      <internalNodes>
        0 -1 97688 1.1601777514442801e-03</internalNodes>
      <leafValues>
        -1.6601946949958801e-01 4.4955220818519592e-01</leafValues></_>
    <_>
      <internalNodes>
        0 -1 159738 9.5754396170377731e-04</internalNodes>
      <leafValues>
        1.0564466565847397e-01 -5.2205145359039307e-01</leafValues></_>
    <_>
      <internalNodes>
        0 -1 144875 -1.7444942146539688e-02</internalNodes>
      <leafValues>
        5.3607207536697388e-01 -1.1074844002723694e-01</leafValues></_>
    <_>
      <internalNodes>
        0 -1 137015 5.5691312998533249e-02</internalNodes>
      <leafValues>
        -1.5413790941238403e-01 4.2722544074058533e-01</leafValues></_>
    <_>
      <internalNodes>
        0 -1 58489 -1.0836794972419739e-01</internalNodes>
      <leafValues>
        3.8799485564231873e-01 -2.5189945101737976e-01</leafValues></_>
    <_>
      <internalNodes>
        0 -1 98281 3.1884017516858876e-05</internalNodes>
      <leafValues>
        -2.3473598062992096e-01 2.4781270325183868e-01</leafValues></_>
    <_>
      <internalNodes>
        0 -1 70084 2.1444498561322689e-03</internalNodes>
      <leafValues>
        -1.8132939934730530e-01 3.3628237247467041e-01</leafValues></_>
    <_>
      <internalNodes>
        0 -1 24242 2.3305583745241165e-03</internalNodes>
      <leafValues>
        -1.0505714267492294e-01 5.2965861558914185e-01</leafValues></_>
    <_>
      <internalNodes>
        0 -1 150830 -4.3691801838576794e-03</internalNodes>
      <leafValues>
        -1.2805770337581635e-01 4.7917836904525757e-01</leafValues></_>
    <_>
      <internalNodes>
        0 -1 46994 -1.8077718093991280e-02</internalNodes>
      <leafValues>
        1.4964191615581512e-01 -3.8724595308303833e-01</leafValues></_>
    <_>
      <internalNodes>
        0 -1 127527 7.7051215339452028e-04</internalNodes>
      <leafValues>
        -1.6386736929416656e-01 4.1397395730018616e-01</leafValues></_>
    <_>
      <internalNodes>
        0 -1 93124 9.6766615752130747e-04</internalNodes>
      <leafValues>
        -1.2698973715305328e-01 4.4545403122901917e-01</leafValues></_>
    <_>
      <internalNodes>
        0 -1 126543 -5.6178309023380280e-04</internalNodes>
      <leafValues>
        2.8240373730659485e-01 -2.2809326648712158e-01</leafValues></_>
    <_>
      <internalNodes>
        0 -1 13396 2.5373636162839830e-04</internalNodes>
      <leafValues>
        1.0328219830989838e-01 -5.1692986488342285e-01</leafValues></_></weakClassifiers></stage17>
</opencv_storage>
