<?xml version="1.0"?>
<opencv_storage>
<stage20>
  <maxWeakCount>18</maxWeakCount>
  <stageThreshold>-1.0445088148117065e+00</stageThreshold>
  <weakClassifiers>
    <_>
      <internalNodes>
        0 -1 82895 4.3013487011194229e-03</internalNodes>
      <leafValues>
        -5.0989347696304321e-01 6.5217393636703491e-01</leafValues></_>
    <_>
      <internalNodes>
        0 -1 157229 5.1611945964396000e-03</internalNodes>
      <leafValues>
        -1.9112913310527802e-01 3.3477237820625305e-01</leafValues></_>
    <_>
      <internalNodes>
        0 -1 60163 -1.0101087391376495e-02</internalNodes>
      <leafValues>
        5.7159060239791870e-01 -7.1104712784290314e-02</leafValues></_>
    <_>
      <internalNodes>
        0 -1 74958 -9.3702532351016998e-02</internalNodes>
      <leafValues>
        -1.1023794859647751e-01 4.9336349964141846e-01</leafValues></_>
    <_>
      <internalNodes>
        0 -1 60190 -3.8929148577153683e-03</internalNodes>
      <leafValues>
        2.7125003933906555e-01 -2.0939505100250244e-01</leafValues></_>
    <_>
      <internalNodes>
        0 -1 125049 1.7864370602183044e-04</internalNodes>
      <leafValues>
        1.2060154974460602e-01 -4.8305878043174744e-01</leafValues></_>
    <_>
      <internalNodes>
        0 -1 18920 -1.6270547639578581e-03</internalNodes>
      <leafValues>
        -6.9929897785186768e-01 1.0902234166860580e-01</leafValues></_>
    <_>
      <internalNodes>
        0 -1 58125 2.4191735428757966e-04</internalNodes>
      <leafValues>
        -1.9075736403465271e-01 3.1147113442420959e-01</leafValues></_>
    <_>
      <internalNodes>
        0 -1 25935 -3.6285325884819031e-02</internalNodes>
      <leafValues>
        6.2025982141494751e-01 -1.0348488390445709e-01</leafValues></_>
    <_>
      <internalNodes>
        0 -1 154991 1.6844263300299644e-03</internalNodes>
      <leafValues>
        -1.4585334062576294e-01 3.6652928590774536e-01</leafValues></_>
    <_>
      <internalNodes>
        0 -1 138743 -1.4435166493058205e-02</internalNodes>
      <leafValues>
        2.5094124674797058e-01 -2.4184903502464294e-01</leafValues></_>
    <_>
      <internalNodes>
        0 -1 143108 1.1269137263298035e-02</internalNodes>
      <leafValues>
        -9.5704309642314911e-02 6.5166389942169189e-01</leafValues></_>
    <_>
      <internalNodes>
        0 -1 148251 8.9891615789383650e-04</internalNodes>
      <leafValues>
        -1.6821563243865967e-01 4.1253057122230530e-01</leafValues></_>
    <_>
      <internalNodes>
        0 -1 127982 8.5747493430972099e-03</internalNodes>
      <leafValues>
        7.4856743216514587e-02 -9.1424798965454102e-01</leafValues></_>
    <_>
      <internalNodes>
        0 -1 101722 -4.5517431572079659e-03</internalNodes>
      <leafValues>
        -5.4077386856079102e-01 8.8834837079048157e-02</leafValues></_>
    <_>
      <internalNodes>
        0 -1 82303 5.7956781238317490e-03</internalNodes>
      <leafValues>
        -1.5590915083885193e-01 3.9940884709358215e-01</leafValues></_>
    <_>
      <internalNodes>
        0 -1 6524 -3.5168413072824478e-02</internalNodes>
      <leafValues>
        1.3181819021701813e-01 -4.8169136047363281e-01</leafValues></_>
    <_>
      <internalNodes>
        0 -1 60489 1.2215951457619667e-02</internalNodes>
      <leafValues>
        -1.2347664684057236e-01 6.4884132146835327e-01</leafValues></_></weakClassifiers></stage20>
</opencv_storage>
